37 100
</s> 0.004003 0.004419 -0.003830 -0.003278 0.001367 0.003021 0.000941 0.000211 -0.003604 0.002218 -0.004356 0.001250 -0.000751 -0.000957 -0.003316 -0.001882 0.002579 0.003025 0.002969 0.001597 0.001545 -0.003803 -0.004096 0.004970 0.003801 0.003090 -0.000604 0.004016 -0.000495 0.000735 -0.000149 -0.002983 0.001312 -0.001337 -0.003825 0.004754 0.004379 -0.001095 -0.000226 0.000509 -0.003638 -0.004007 0.004555 0.000063 -0.002582 -0.003042 -0.003076 0.001697 0.000201 0.001331 -0.004214 -0.003808 -0.000130 0.001144 0.002550 -0.003170 0.004080 0.000927 0.001120 -0.000608 0.002986 -0.002288 -0.002097 0.002158 -0.000753 0.001031 0.001805 -0.004089 -0.001983 0.002914 0.004232 0.003932 -0.003047 -0.002108 -0.000909 0.002001 -0.003788 0.002998 0.002788 -0.001599 -0.001552 -0.002238 0.004229 0.003912 -0.001180 0.004215 0.004820 0.001815 0.004983 -0.003111 -0.001532 -0.002107 -0.002907 0.002815 0.001579 0.000425 -0.002194 0.001524 0.003059 0.000194
Ìï©ÎãàÎã§. 0.001896 -0.005475 0.005380 0.000244 -0.000544 -0.001024 -0.001774 -0.004143 -0.005067 -0.000989 0.005730 0.000285 -0.003364 0.001583 -0.002488 0.007012 0.000148 -0.004062 0.003480 0.000473 -0.005270 0.002018 0.002921 -0.002434 0.002677 -0.005815 0.001172 0.002680 -0.002204 -0.000613 0.000019 -0.001717 -0.003684 -0.003706 -0.000204 0.000086 -0.000666 -0.003857 -0.003767 -0.006213 -0.004750 0.000218 0.001297 0.000901 -0.001927 0.005476 -0.001626 -0.001901 -0.000899 0.004292 -0.003909 0.000463 -0.002330 0.002962 0.000038 0.002937 -0.002867 -0.002697 -0.004115 -0.004969 -0.003914 -0.002711 0.003138 -0.001569 0.003366 0.005168 0.002774 0.001678 0.003784 0.003122 -0.002347 -0.003603 -0.003693 -0.001658 0.003978 -0.002989 -0.003892 -0.004464 0.003158 -0.005374 0.000215 0.002815 -0.004417 -0.005607 0.002734 0.005054 0.004687 0.002686 0.005072 -0.002349 -0.005348 0.004988 -0.003979 0.003237 0.000906 0.002120 -0.002342 0.001108 -0.002841 -0.001158
Îçî -0.004451 -0.003570 0.003968 0.000875 -0.001955 -0.001263 0.002019 -0.004017 -0.002536 0.005458 0.004710 -0.003210 0.000799 -0.002521 -0.000058 0.003651 0.005586 0.002207 0.004181 0.003340 -0.000820 0.004768 0.003121 0.004072 -0.001295 0.004166 0.004238 -0.001111 -0.004365 0.004695 0.000909 -0.001769 -0.001075 -0.000455 -0.003901 -0.001468 -0.000681 -0.004906 -0.003049 -0.001725 -0.000998 0.002091 0.000780 -0.000844 0.003249 0.001898 0.000637 0.003415 -0.000862 -0.001499 -0.000463 -0.003064 -0.003265 0.000213 0.004500 -0.001907 0.000012 -0.004156 0.003731 -0.001819 0.002579 -0.002256 -0.000621 0.000278 0.003850 0.000424 0.005040 -0.001279 0.002525 0.000139 -0.003438 0.004207 0.001033 -0.003594 0.003037 -0.004188 -0.004641 0.003311 -0.003376 -0.002897 0.003833 0.003354 0.000907 0.004211 0.005361 0.004506 0.001968 -0.004201 0.003070 -0.004577 -0.001881 0.001897 0.000521 -0.001023 0.002974 -0.004496 -0.001808 -0.000945 -0.002141 0.003178
ÏûàÏäµÎãàÎã§. -0.004598 0.002393 0.002500 0.002559 0.004863 0.001369 -0.000618 -0.005917 -0.001581 0.004941 -0.000447 0.006169 -0.001701 -0.004319 -0.003203 0.006917 0.005271 -0.003376 0.005081 -0.003712 -0.006334 0.003339 0.000908 -0.004164 0.000613 -0.003979 0.002556 0.004648 0.004785 -0.004873 -0.001900 0.000939 -0.001962 0.004484 0.002061 0.004250 -0.003675 0.001956 0.005460 -0.003181 0.002536 0.002123 -0.004718 0.003697 0.005861 -0.002171 0.000351 -0.002166 0.002954 -0.004277 0.003301 -0.001541 -0.002130 -0.002133 -0.004053 -0.004283 -0.001072 0.004208 -0.002290 -0.005581 -0.000370 0.001150 0.003463 0.000428 0.003979 0.004465 0.000351 -0.002094 0.001690 0.002036 0.004624 0.003858 -0.002954 -0.004025 -0.001628 -0.002720 0.000187 -0.003934 -0.002173 -0.005951 0.002871 0.004633 -0.001739 -0.005462 0.004053 0.002990 -0.001744 -0.000075 0.000620 0.000811 -0.003334 0.001093 -0.004089 0.005154 0.003853 0.003433 -0.002751 0.001185 -0.000550 -0.002456
Ïàò -0.004742 -0.001247 -0.001522 0.002927 0.002965 0.001991 -0.003475 0.003061 -0.001696 0.003891 0.001618 0.005354 0.002406 0.000508 -0.002555 0.005509 -0.001711 0.003438 0.005166 0.004937 -0.001260 0.003551 0.004937 -0.002618 0.004965 -0.005463 0.000283 -0.000079 0.004421 -0.004524 -0.001525 -0.001345 0.000158 0.005069 -0.001670 -0.004929 -0.001672 0.004251 0.001426 0.002486 -0.003932 -0.000943 0.000398 -0.002443 0.003843 -0.004488 0.003319 -0.002562 0.003472 0.003084 -0.001894 0.003322 0.000156 0.004624 -0.003549 -0.001612 0.002766 0.004397 0.002282 -0.001343 0.000234 -0.000668 0.002231 0.002634 -0.003640 -0.000840 0.004684 -0.000109 0.005231 0.004986 0.001119 -0.004661 0.004450 0.001689 -0.004685 0.003516 -0.005115 -0.002365 0.004406 0.002988 -0.000486 0.001325 -0.002931 -0.005029 0.002588 0.004823 0.004209 0.002996 0.002104 0.002229 -0.000486 0.001866 -0.002896 0.001446 0.000957 0.000050 0.002133 0.001085 -0.004436 -0.001249
Íµ≠ÎØº 0.002108 0.003279 -0.003456 0.000835 0.004150 0.004238 -0.004706 0.002472 -0.002871 -0.000725 0.001741 0.003087 -0.004141 -0.002833 0.001152 0.000885 0.005292 0.002592 -0.002751 0.000303 0.000356 -0.002085 0.003816 -0.003537 0.005270 0.000113 -0.004648 0.000596 -0.000297 0.000884 0.003153 0.000558 -0.000681 0.000633 -0.002859 -0.000383 0.003076 0.003674 0.002471 -0.005419 0.000019 -0.002437 0.003689 0.003969 0.003589 0.001910 0.001381 -0.001873 -0.002220 -0.001950 -0.003898 -0.000015 0.000493 0.001445 0.002393 -0.004422 0.003164 -0.001425 -0.004178 0.003734 -0.003155 -0.000608 -0.003949 0.004941 -0.001928 -0.004285 0.004461 0.000987 0.003935 0.001603 0.004264 0.000166 0.003700 0.003706 0.001658 -0.000436 0.000755 0.004030 -0.002942 -0.000774 0.001492 0.002030 0.000867 0.003353 0.001835 0.003774 -0.003108 -0.001731 0.002727 0.005054 0.000976 0.001115 -0.005024 -0.003804 0.004246 0.002417 -0.003402 -0.001281 -0.004358 -0.003267
Í≤ÉÏûÖÎãàÎã§. 0.004444 -0.003000 0.001611 -0.001115 -0.001675 -0.000141 -0.005215 -0.003003 -0.000505 0.005063 -0.001319 0.004651 -0.004575 0.003804 0.000483 0.001125 0.003382 0.003399 -0.003037 0.003197 0.000654 -0.000701 0.003723 -0.000195 0.004597 -0.000466 -0.001610 0.003603 -0.003163 -0.000730 0.003881 0.004953 -0.004342 0.001732 0.003988 0.000463 0.002162 0.002661 0.005320 -0.001493 -0.001051 0.003383 -0.005069 0.000920 0.000776 0.004864 -0.003557 -0.000317 0.004763 0.001295 0.002486 0.000946 0.000967 0.000975 0.000290 0.002784 0.003822 0.002738 -0.001911 -0.003181 -0.003649 -0.000856 -0.002077 -0.003810 -0.001670 0.004142 0.003271 -0.005247 -0.001559 0.004337 0.000218 0.003642 -0.001400 -0.000965 -0.002473 0.001508 -0.004394 0.002716 -0.002150 0.002388 -0.002727 -0.002228 0.004278 0.002070 0.002510 0.002063 0.003238 -0.000285 0.004748 0.003998 0.002675 0.004716 -0.002917 -0.003034 -0.003151 0.000381 0.000415 0.004367 -0.003680 0.003178
Ìï®Íªò 0.003609 0.003284 0.000581 0.001268 -0.000369 0.005165 -0.004851 -0.005325 0.001578 0.000158 0.005392 -0.000481 -0.000238 0.001826 0.000893 -0.002098 0.004036 0.000270 0.001739 -0.001334 0.003958 0.003199 0.005155 0.003739 -0.000552 0.001150 0.001546 -0.001850 0.004589 0.002054 -0.003230 0.004556 0.000056 0.001578 -0.003689 0.002070 -0.000015 -0.002406 -0.000100 0.001558 -0.001327 0.004312 -0.002725 -0.002520 0.004205 0.004884 0.003861 0.004337 -0.004611 -0.003468 -0.004895 0.000801 -0.004559 -0.000286 0.001107 -0.002464 0.001091 -0.004392 0.001878 -0.002141 -0.002092 -0.001027 0.002625 -0.001419 -0.002056 -0.002503 -0.001408 -0.004730 0.002452 -0.000903 -0.000830 0.002067 -0.004002 -0.003954 -0.004570 -0.000072 -0.002340 -0.004735 0.002151 -0.005255 -0.001847 0.001683 0.004989 -0.004031 -0.001370 0.005493 0.003396 0.004598 0.004632 -0.002272 -0.002829 0.002583 0.002468 0.004317 0.003332 -0.004503 -0.004782 0.001023 -0.004947 0.002819
Ï°¥Í≤ΩÌïòÎäî 0.004341 -0.002092 0.004017 -0.005045 0.004501 -0.002178 -0.001054 -0.005039 0.002938 0.004439 -0.003802 -0.000560 0.000868 0.004393 0.000021 -0.004610 0.001012 -0.001728 0.000942 0.004052 -0.003106 -0.002458 -0.000163 -0.001407 -0.001628 -0.003809 -0.000039 -0.004014 0.004228 0.002723 -0.001308 0.003253 -0.003073 -0.004561 0.004306 0.001130 0.002727 -0.003365 -0.001046 0.003223 -0.001563 0.001016 -0.004489 -0.004087 0.004986 -0.004297 0.001161 -0.003249 0.003908 -0.000408 0.004266 -0.003455 0.000933 -0.004613 -0.003022 -0.001276 0.004095 -0.002590 0.002356 -0.000707 0.002996 0.002832 -0.002548 -0.003587 0.000744 0.001157 0.000986 0.000260 0.002280 0.003885 0.004108 -0.005136 0.004833 -0.004355 0.000650 -0.003922 -0.001071 0.004550 -0.002362 0.001339 -0.002098 -0.000807 0.003548 0.002308 -0.004121 0.001959 -0.000224 0.002307 0.001159 -0.003348 -0.000088 -0.003683 0.002628 0.001379 0.001614 0.002705 0.004546 0.004623 0.002289 0.003000
ÏûàÎäî 0.002058 -0.001307 0.005041 -0.000270 0.002181 -0.000217 0.000753 -0.001334 0.004023 0.002809 0.000442 0.000739 0.001984 -0.003617 -0.002095 0.002356 0.001868 -0.003789 -0.001562 -0.001511 -0.002953 0.004335 0.004782 -0.005099 0.003716 -0.003528 0.001586 0.002662 0.000076 -0.004122 0.000101 -0.001165 0.002148 0.002921 0.000686 -0.002454 -0.001199 0.000339 -0.001393 -0.005139 -0.000286 -0.002206 -0.002638 0.000395 -0.002059 0.003091 -0.001412 0.003322 -0.002951 -0.001871 0.002162 -0.002820 -0.004935 -0.001045 0.003211 -0.001998 0.004274 0.001804 -0.002733 0.004355 -0.005376 -0.003685 0.003711 -0.002641 0.003776 0.004618 0.003524 -0.002219 -0.002203 0.000188 0.000527 -0.005072 -0.003966 0.000069 0.000682 0.004804 0.002700 -0.003540 0.004460 -0.001694 0.003476 -0.000944 0.002441 -0.000366 0.004648 0.003292 -0.001739 0.004981 -0.003039 0.004810 -0.002456 0.001187 0.000549 0.004861 0.002044 -0.001136 -0.005231 0.004069 -0.000290 0.002677
Ïó¨Îü¨Î∂Ñ! -0.003952 -0.002770 -0.002240 -0.002471 0.003326 0.002707 -0.000549 0.002030 -0.000596 -0.000903 -0.003843 -0.002401 0.000153 -0.002424 -0.002535 -0.004028 0.003435 0.004279 -0.001576 0.003934 -0.002217 -0.004715 -0.004699 -0.000843 -0.001883 -0.000166 -0.003800 0.003865 -0.002184 0.001364 0.003641 -0.000082 -0.004902 0.003123 0.000738 0.003316 0.000511 0.002318 0.004691 0.002285 -0.003588 -0.001139 0.003196 -0.001512 -0.001916 0.004806 -0.001404 0.004475 0.002849 0.003876 0.004585 -0.004194 0.000860 0.004070 -0.002327 0.001235 -0.004833 0.004542 -0.003703 0.001643 0.000654 -0.002788 0.002600 0.000169 -0.004697 -0.002969 0.000017 0.001823 -0.000890 0.000362 0.004925 -0.003875 0.004148 -0.003186 -0.003958 0.003184 -0.003939 -0.000559 -0.004720 -0.003778 0.003142 0.001755 -0.003544 0.001230 0.004574 0.001206 -0.004458 -0.003212 0.003692 -0.003091 0.001588 0.003281 0.004195 0.001497 -0.003056 0.003475 -0.004388 -0.001158 0.004029 0.004175
Í∑∏Î¶¨Í≥† -0.002375 -0.003850 0.000514 0.002923 0.002440 0.003693 0.004172 0.000783 -0.004919 0.002654 -0.002373 0.001569 0.003842 -0.002370 0.003649 0.000065 -0.001276 -0.003809 -0.000812 0.005051 0.001624 -0.002619 0.003417 -0.002895 -0.001246 0.003258 -0.003086 0.000041 -0.002995 -0.001315 0.004468 -0.000745 -0.003102 0.000500 0.001938 0.002720 0.001201 -0.001949 -0.001368 0.001740 0.004812 0.003762 -0.004609 -0.000627 -0.004515 0.001914 -0.003385 0.001481 0.003307 -0.000703 -0.001556 -0.003742 0.000777 -0.004069 0.000203 0.004543 0.003554 0.003546 0.002781 -0.000376 -0.001264 -0.003035 0.000212 -0.002622 -0.002928 0.002867 -0.000808 -0.004403 0.000867 0.000841 -0.001762 -0.004178 -0.004994 0.002815 -0.001065 0.000730 -0.002556 0.004080 -0.004772 -0.003700 -0.001400 0.000638 0.003525 0.000885 0.000837 0.002813 0.002702 -0.004852 -0.000651 0.001979 0.003879 0.002574 0.001217 0.003121 0.001559 -0.001399 -0.002281 0.003209 0.001605 0.001814
ÌïòÍ≤†ÏäµÎãàÎã§. 0.000825 0.001329 0.004000 0.002782 -0.003512 0.001009 -0.002760 -0.005488 -0.000069 0.005287 0.000128 0.005410 0.004222 -0.000137 0.003758 -0.000511 0.002152 -0.002007 0.000898 -0.000934 -0.005617 -0.001024 0.001809 -0.002694 0.004865 -0.003302 -0.001482 0.003444 -0.000640 0.001485 0.000231 0.001596 0.000987 0.000974 0.004216 0.003034 -0.003070 -0.003854 0.003587 0.001780 0.003618 0.003148 -0.000726 -0.005077 0.001631 -0.001796 0.000353 -0.000995 0.002494 0.000438 0.004358 -0.004724 0.001550 0.003074 0.003828 -0.003225 -0.001948 0.000056 0.001380 0.000029 0.000456 -0.001317 0.004542 0.003622 0.003056 -0.001644 0.001677 -0.004398 -0.000025 0.000055 0.003957 0.002984 -0.002308 -0.001528 0.004657 -0.000758 -0.002099 0.003477 0.002064 0.002706 0.004271 0.001825 0.004188 -0.005071 0.000008 -0.003489 0.001928 -0.000084 0.003747 0.001160 -0.001271 0.001942 0.002772 0.003941 0.003771 -0.001104 0.004317 0.003177 0.002456 0.002973
ÌïòÎäî 0.002064 0.001408 -0.000476 -0.003167 0.002839 0.004326 -0.004636 -0.003790 -0.004016 -0.002184 -0.000185 0.000800 -0.003979 0.000792 -0.001272 -0.000817 -0.002087 -0.003080 -0.004311 0.005063 -0.002945 -0.000288 0.003909 -0.005444 -0.003036 -0.004434 -0.001057 -0.002429 -0.002285 -0.004077 0.001008 0.002729 -0.004951 0.001695 0.000826 0.003647 -0.002455 -0.002995 0.002953 -0.003443 0.004597 -0.000599 0.002488 0.000194 -0.000619 -0.001506 -0.000405 0.004464 -0.003818 -0.004230 -0.005001 0.003262 0.002801 -0.003575 0.003198 0.001692 0.000401 -0.002950 -0.000170 -0.001227 0.000470 -0.002317 0.004523 -0.004644 -0.000510 -0.000002 -0.001429 0.003388 0.003976 -0.001885 0.005309 0.000420 0.003832 -0.001013 0.001113 0.003602 0.002455 0.003706 -0.004078 0.003815 -0.004534 0.002938 0.000171 0.004584 -0.000410 0.001769 -0.001660 0.002262 0.005413 -0.003471 -0.004154 0.004172 0.004268 -0.002654 0.003486 0.001100 0.003602 -0.003977 0.000635 -0.003214
Ï†ÄÎäî 0.000132 -0.003044 0.002939 -0.002916 0.003576 -0.002378 -0.004574 -0.000076 -0.003113 -0.002571 -0.002348 -0.003586 -0.004822 -0.001871 0.000840 -0.000442 -0.003794 0.004552 -0.000973 -0.004734 -0.000102 0.003611 -0.001478 0.001842 -0.000791 0.004715 -0.001810 0.000024 -0.000871 0.000099 -0.000464 0.003090 -0.002724 0.004185 -0.003546 -0.003181 0.003921 0.003950 -0.004599 -0.000533 0.001676 -0.000863 -0.004853 0.001893 -0.004276 0.001563 -0.002804 -0.002623 0.003640 -0.004196 -0.004618 0.001577 -0.004422 -0.001049 -0.003750 0.002885 0.004305 0.000521 -0.001470 0.002089 0.004904 0.002512 0.003752 0.002459 -0.004922 -0.000448 -0.004251 -0.000351 0.004946 -0.001528 0.000947 0.002159 -0.002883 -0.001060 -0.001721 0.000542 -0.003196 0.003051 -0.000867 -0.001732 0.001729 -0.004769 -0.002536 0.001052 0.001929 0.002537 -0.000449 -0.002874 0.000116 0.004448 0.004443 -0.002644 0.001366 0.003147 0.003494 0.004883 0.003441 0.002994 0.000538 -0.004294
Ïö∞Î¶¨ -0.003367 0.000759 0.002664 -0.002214 0.003898 -0.002520 -0.003686 0.001901 -0.001759 0.003560 -0.002482 0.003372 0.000168 0.002468 -0.005233 0.004667 -0.000112 0.004558 -0.001251 0.004805 -0.004367 -0.002983 -0.003112 -0.005485 -0.001116 0.000935 -0.001178 0.000836 0.002777 0.004419 0.001109 0.005202 -0.001816 0.002041 -0.001393 -0.003438 -0.000397 0.003142 0.001879 -0.003565 0.000571 0.000680 0.000002 -0.000726 0.000244 -0.001133 -0.001290 -0.001011 -0.003471 0.003993 0.002889 0.004594 0.002905 -0.003362 0.003560 -0.003609 -0.004013 -0.001591 0.000068 -0.001194 0.001568 0.004548 -0.002532 -0.002650 0.001812 0.001467 0.002237 -0.001839 -0.002226 -0.002352 0.002076 -0.005103 0.003956 -0.004454 -0.001254 -0.000263 -0.000731 0.002093 -0.002481 -0.002329 0.004908 0.002054 0.003592 -0.002016 0.001688 -0.004216 -0.003725 0.002103 0.005547 0.004024 -0.004388 0.001688 0.001700 0.002908 -0.001177 0.002495 -0.005702 -0.001937 -0.001336 0.003983
ÎåÄÌïúÎØºÍµ≠Ïùò -0.004986 -0.000329 -0.002887 -0.003569 -0.002303 0.000399 0.003219 0.003116 0.000300 0.004219 0.001932 0.000128 0.003310 -0.002160 -0.000720 -0.004696 -0.000637 0.001472 0.004546 -0.000616 0.003373 -0.003213 -0.001095 -0.004006 0.003347 -0.002006 -0.003719 0.000974 -0.000712 0.002700 0.003071 0.002265 0.003685 0.000307 -0.001681 0.000763 0.001884 0.002439 0.003340 -0.000305 0.001552 0.004153 0.001971 -0.004908 0.002867 0.002071 0.000788 -0.004951 -0.001848 -0.004111 -0.001482 0.000206 0.002867 -0.002234 -0.003311 0.004162 0.004926 0.002136 -0.000845 0.002524 0.003979 -0.004081 0.002446 0.003694 0.002878 -0.001107 -0.004775 -0.001946 -0.003157 0.002774 -0.000964 -0.000517 0.003332 0.002096 -0.002177 0.003324 0.002714 0.004407 -0.002132 -0.002164 -0.002190 -0.001309 -0.001749 0.004206 0.003331 -0.002763 0.000251 -0.004532 -0.002896 0.004396 -0.002324 -0.002633 -0.000697 -0.002528 -0.002677 -0.001869 0.002630 -0.004400 -0.002345 -0.001311
ÎåÄÌïúÎØºÍµ≠ 0.002323 0.000971 0.000615 0.002156 -0.003746 -0.001172 -0.001189 0.004351 0.003223 0.005187 0.000978 0.004647 -0.002370 -0.000716 0.003415 0.001894 0.004534 0.004768 -0.000629 0.000067 -0.000597 0.004884 0.002337 -0.005257 -0.004548 -0.003605 -0.002213 -0.004054 0.003200 0.000283 -0.004207 0.002599 -0.001874 -0.002156 -0.002837 -0.001837 -0.001316 0.002988 -0.003335 -0.001310 0.004700 0.003491 -0.001045 0.003127 -0.001255 -0.001357 0.004493 0.001420 -0.004285 0.000051 0.004079 -0.002847 0.003011 0.003122 0.001877 -0.004162 0.001884 0.004385 0.004051 -0.003774 0.003893 0.003656 -0.000308 -0.000812 -0.004726 0.002596 0.000232 -0.003173 0.003001 -0.004384 -0.000662 -0.003421 -0.003388 -0.000447 0.002850 -0.004451 -0.000292 -0.004582 0.001064 0.004739 -0.002381 0.003891 0.004645 -0.002346 -0.002534 0.000083 -0.002601 0.000430 -0.000264 0.000322 -0.004597 0.000717 -0.004598 0.004861 -0.000981 -0.000912 0.002253 -0.004735 -0.002320 -0.000621
Ïö∞Î¶¨Îäî -0.003064 -0.004118 -0.002490 -0.002720 -0.000452 0.005014 0.002164 0.000664 0.001697 0.001152 0.003596 0.001959 0.000189 -0.004428 0.000400 0.002180 0.002356 0.004622 -0.001480 -0.002323 -0.003407 0.004307 0.003716 -0.003042 -0.001630 0.003432 0.003969 0.002230 0.000703 -0.004220 0.001939 0.004932 0.001709 0.005062 0.001052 0.001001 0.002219 -0.002291 -0.001863 -0.000697 0.004516 0.004126 0.001016 0.000826 0.003790 -0.004111 0.002298 -0.001581 -0.002759 -0.002744 -0.004948 -0.002186 -0.004845 -0.004055 -0.003524 -0.002753 0.001108 0.001080 0.004609 -0.001997 -0.001077 0.005080 0.001528 0.003247 -0.002346 0.002171 0.001034 -0.002335 -0.003501 -0.001030 -0.001028 0.001290 -0.002255 -0.005085 0.004504 0.003735 -0.002714 0.003732 -0.000406 -0.001702 0.003347 -0.001706 -0.002331 0.001191 0.004900 -0.003600 0.005149 0.001013 0.005168 -0.003170 0.000369 -0.002231 -0.001825 0.002373 -0.003530 0.004705 0.003470 -0.002981 -0.004607 -0.001773
Ïù¥ 0.000611 -0.002479 -0.004395 -0.003891 0.002158 0.005398 0.002946 -0.000905 0.001819 0.000605 0.002788 0.002590 -0.000631 -0.003020 -0.004720 -0.001243 0.005110 0.004645 -0.000663 -0.002530 -0.001874 0.000727 0.003447 -0.000789 -0.001328 -0.003260 -0.002974 -0.000273 0.000778 -0.000374 -0.003413 0.001702 -0.004813 -0.004329 -0.002820 0.004131 -0.004126 0.002631 -0.001118 -0.001970 -0.002736 0.004614 0.000750 -0.002361 -0.003018 0.005027 -0.000922 -0.002296 0.005092 0.000561 -0.000868 -0.003662 0.003273 0.001952 0.000296 -0.005127 -0.001110 0.000789 0.003606 -0.003303 -0.002481 0.001502 0.003388 -0.002217 0.001243 0.001194 -0.004411 -0.005462 0.001830 -0.001321 -0.000818 0.000539 0.003108 -0.004028 -0.005141 -0.002917 0.004135 -0.000107 -0.001753 0.000411 -0.004056 -0.004834 0.005119 -0.001012 -0.000402 0.002432 0.003477 0.004313 0.001049 0.002485 -0.005037 -0.001484 -0.004372 0.001228 -0.004930 -0.002757 -0.002869 0.004731 -0.002110 -0.000420
Ïö∞Î¶¨Ïùò -0.002766 0.001872 0.005461 -0.004363 0.000238 -0.002283 0.003932 -0.001255 0.002528 0.004287 0.003902 -0.002280 -0.002810 -0.002580 -0.004329 -0.003800 -0.003907 -0.000152 0.002200 -0.003736 0.000942 0.002319 0.003779 0.001367 0.005220 -0.002785 0.002688 -0.000112 0.004654 -0.004473 -0.002817 -0.002989 0.002843 0.004774 -0.004021 0.003997 -0.003837 -0.004221 0.000882 -0.005340 0.001887 0.005414 0.003463 -0.004583 -0.000111 -0.000876 0.003026 0.003878 0.002197 -0.004197 -0.003698 0.000397 0.003649 -0.000585 -0.003646 -0.001413 0.004230 0.003524 -0.003877 -0.005290 0.001564 -0.003932 0.002405 -0.002668 0.000752 0.005377 0.004214 -0.004946 0.005110 0.003196 0.002035 0.003980 0.001429 0.003754 -0.000325 -0.002179 0.001911 -0.002939 -0.004628 -0.004319 -0.000607 0.000348 -0.003322 -0.001793 -0.002398 -0.003782 -0.004524 -0.000149 0.005338 -0.002369 0.003880 0.004650 -0.000348 0.004346 0.002373 0.000866 -0.002580 0.003389 -0.004554 0.000410
Ï†ïÎ∂ÄÍ∞Ä 0.002673 -0.002457 -0.001873 -0.004107 0.002157 0.002726 0.001118 0.003202 -0.004334 0.004705 0.003488 0.001755 -0.002933 0.002351 0.002041 0.000399 0.001313 -0.000441 -0.000416 0.003187 0.004403 -0.000369 -0.000283 -0.004360 -0.000735 -0.000827 -0.001964 -0.002348 -0.003716 -0.000817 0.004540 -0.001885 0.001447 0.000995 0.000083 0.000791 0.002594 -0.001517 -0.000823 0.001690 -0.000113 -0.000484 -0.003120 -0.000659 -0.004193 0.003320 0.003434 0.004105 -0.004708 0.001544 -0.000381 -0.000661 -0.004207 -0.000529 -0.000345 0.000778 -0.001544 0.003764 -0.000323 -0.002881 -0.005141 0.004028 -0.001205 -0.001027 0.001342 0.002275 -0.001590 -0.001314 0.004577 0.002695 0.002116 0.003561 0.004598 0.002285 -0.003837 0.000890 0.004665 0.001687 0.000350 0.001590 0.000110 0.001899 -0.004580 -0.000957 -0.001891 -0.002095 -0.004557 -0.000659 -0.001089 -0.003790 -0.003646 0.000448 0.004306 -0.003174 -0.001654 0.002789 0.001163 0.001488 0.001261 0.000238
Ìï† -0.003577 0.004600 0.000503 -0.001702 0.000253 0.004218 0.000809 -0.004794 0.004455 -0.001173 0.003157 0.002724 -0.004642 0.000170 -0.003417 0.002475 0.000623 0.004152 -0.003079 0.000697 -0.001153 -0.003214 -0.000075 -0.004172 0.004958 -0.003002 0.003629 0.000065 0.002452 -0.001414 0.000757 0.004852 -0.000885 -0.004669 0.004508 -0.003856 -0.004102 0.003464 0.001934 0.002743 -0.005088 0.003427 0.000950 -0.004331 0.001843 -0.003102 0.003685 -0.002191 0.003418 -0.001703 0.003658 -0.005011 0.000129 0.004967 -0.002080 -0.004688 -0.004485 -0.003745 0.004558 -0.000099 0.003357 0.004388 -0.004372 0.002239 0.002653 0.003909 0.004697 -0.003150 0.002842 0.001260 -0.001947 0.003688 -0.003886 -0.004082 0.004584 0.002751 -0.001854 0.001403 -0.003619 -0.003202 -0.002700 0.000813 -0.003420 0.002378 0.002680 0.001929 0.001973 -0.001905 -0.002660 0.003588 0.000742 0.003692 -0.004543 -0.001702 -0.004193 0.002677 -0.003522 0.000393 -0.000472 0.001357
ÏúÑÌï¥ -0.000122 -0.003312 -0.000146 -0.002356 -0.002036 -0.002476 0.003832 0.002371 -0.004255 0.004399 0.004563 -0.000552 0.001426 0.001412 0.004649 0.003565 0.005138 -0.003582 0.001452 0.003407 -0.001351 -0.001364 0.003443 -0.000325 -0.001451 -0.000435 0.001888 -0.003516 0.001459 0.004785 0.000944 -0.001352 -0.002436 0.000713 -0.002959 0.004659 -0.000027 -0.003352 -0.000789 -0.004601 0.003718 -0.004848 -0.001812 0.004365 -0.003470 0.000370 -0.001234 -0.002949 -0.001804 -0.000661 -0.003374 0.001806 0.001396 0.001755 0.001126 -0.000708 0.001723 -0.000230 0.003617 0.003088 -0.003494 -0.002179 -0.002138 -0.001010 -0.003775 0.002832 0.000351 0.004713 0.003184 0.004113 -0.000112 0.001673 0.002403 0.003840 -0.002326 0.002809 0.001919 -0.002958 -0.001729 0.003971 0.001925 0.000410 -0.002472 0.003389 0.004806 0.003403 0.004633 0.002328 -0.003992 -0.002109 0.000563 0.003390 0.002389 -0.001085 0.000071 0.002501 -0.004941 0.002843 -0.001327 -0.001849
ÎÇòÎùº, -0.003540 -0.000452 -0.004226 0.001053 0.001982 0.001427 0.002645 0.004524 -0.002000 0.002423 0.003553 0.004550 -0.003833 -0.000601 0.004037 -0.001332 -0.001152 0.003019 0.003756 -0.001836 0.000207 0.004179 0.003981 -0.003989 -0.000728 -0.002469 -0.002130 -0.000829 0.005114 0.000844 0.003231 0.004611 0.000740 0.003376 -0.002318 0.003462 0.001595 -0.003424 0.003751 -0.001088 -0.005044 -0.004759 0.004252 -0.002703 0.001540 -0.003153 -0.003845 -0.003759 0.003199 0.000490 -0.001763 -0.003025 -0.004609 -0.001575 0.002244 0.002385 -0.003767 0.005098 0.001565 -0.001209 -0.004884 -0.002725 0.003069 0.004317 -0.004500 0.004946 -0.004548 -0.001172 0.002409 0.000016 0.000077 -0.003116 0.002754 -0.003457 0.000480 0.003714 -0.003084 0.002398 0.003888 -0.002596 -0.001665 -0.003633 -0.001377 -0.000944 0.001541 0.001006 -0.003716 0.001984 0.004233 0.000485 0.000729 0.001859 -0.003942 0.001766 -0.001310 -0.003266 0.000940 0.004904 -0.001810 -0.002529
ÏïÑÎãàÎùº 0.003285 0.001144 0.002127 -0.002232 0.000883 -0.003831 0.002361 0.002720 0.003228 -0.003937 -0.002551 0.002050 0.004006 0.000018 0.004566 0.004790 -0.001926 0.001276 -0.003931 0.004599 0.002139 0.003894 -0.004189 -0.002486 -0.001976 0.004041 -0.000182 0.002490 -0.002879 0.002602 -0.003003 -0.000578 0.004907 0.001095 -0.000569 0.001771 -0.000890 0.003502 0.000532 -0.004590 0.000319 -0.002397 -0.003887 -0.001048 0.000477 0.002533 -0.003836 0.002613 0.004988 -0.000030 0.001529 -0.000114 0.001242 -0.004762 -0.003902 -0.003528 0.000290 -0.004969 -0.003440 0.001110 0.003624 -0.000885 0.001606 0.004349 -0.002442 -0.001051 0.002920 -0.001131 -0.001014 -0.000676 0.003800 0.001418 -0.002372 -0.003094 0.000883 -0.000666 -0.002689 0.002350 0.003449 0.004059 0.002633 -0.003113 0.002604 -0.001409 0.001177 -0.004726 0.002412 -0.000917 0.003339 0.003970 -0.001359 0.003468 0.000847 0.003354 0.001684 0.002407 0.000182 0.004750 0.001203 -0.000677
ÏÇ¨ÌöåÎ•º -0.001380 0.002897 0.002455 0.000135 -0.004007 -0.004765 0.000958 0.003027 0.004933 0.000897 -0.003707 -0.001063 0.000899 0.001829 -0.000817 0.000745 0.001444 0.002992 0.004047 0.004503 -0.003550 0.001025 -0.002784 -0.001685 -0.000934 -0.004586 -0.002826 0.003516 0.004091 -0.001398 -0.004076 0.002818 -0.000774 0.004907 -0.003060 0.002006 0.004730 0.001198 -0.002992 -0.000336 0.003164 -0.002757 0.004677 -0.003599 -0.000098 0.004951 0.001528 -0.004361 0.002221 -0.001124 0.001287 0.002944 0.000516 -0.004004 0.000794 -0.003314 -0.002426 -0.004063 -0.001509 -0.002213 -0.001817 0.000785 -0.004000 -0.000579 0.000384 0.004943 -0.002739 -0.002941 0.004190 -0.004564 -0.001517 -0.000534 0.002159 0.001680 -0.001329 -0.002615 -0.000647 -0.003827 -0.000579 0.003741 0.003876 0.002916 0.004397 0.004561 -0.004557 -0.000703 0.000057 -0.001781 -0.003105 0.004659 -0.004764 -0.004763 0.003120 0.001070 0.001602 -0.001030 0.002206 0.003071 0.002824 -0.004612
Î™®ÎëêÍ∞Ä 0.004071 -0.002451 -0.004321 0.002535 0.001604 0.004557 -0.001678 0.001097 -0.000429 -0.004383 0.003008 0.005180 -0.004065 -0.005024 0.002941 -0.000455 0.000911 0.000654 0.005025 0.002724 -0.003543 0.001520 -0.001966 -0.004326 -0.001242 -0.000666 0.003063 0.001888 0.004765 -0.000809 0.004319 -0.003259 0.004855 -0.001768 -0.001729 -0.001397 0.001609 -0.004810 0.003875 -0.001631 0.000494 0.003084 0.001912 -0.000721 -0.001126 -0.004437 -0.002857 -0.002812 -0.003161 -0.000108 -0.004477 0.000098 -0.003135 -0.003849 -0.004111 -0.000733 0.004921 -0.004104 0.000063 -0.002414 -0.002223 0.003721 0.001464 0.001119 -0.003807 -0.003247 -0.003223 -0.002389 0.002563 0.004231 0.004678 -0.001267 0.001782 -0.001758 -0.003213 -0.003203 0.001960 0.003934 -0.003075 -0.001900 0.003322 -0.002301 0.001771 0.001028 -0.001750 -0.000608 -0.000191 -0.003907 0.001804 0.000576 0.002467 -0.003178 0.001393 -0.003646 0.004092 -0.001359 -0.001975 0.003430 0.000472 0.000190
Ïù¥Ï†ú 0.003787 0.001153 0.001303 0.001901 0.004131 0.002291 -0.002963 -0.002632 -0.003948 0.000793 0.002748 0.002645 0.000426 0.003356 0.003450 0.005191 -0.000041 0.000497 -0.000778 -0.003874 -0.001197 0.003484 0.001049 -0.001446 -0.003967 -0.003370 0.002284 -0.000602 0.000752 -0.001953 0.000301 -0.004224 -0.004275 -0.003462 0.003302 -0.001611 -0.003339 0.003944 0.003298 0.000997 0.000641 -0.004705 0.003634 -0.000573 -0.001496 -0.002665 0.000978 0.001855 0.002087 -0.000423 0.003979 -0.000993 -0.003215 0.004148 0.004686 0.004062 0.000813 -0.004398 -0.003696 0.003027 0.003583 0.001019 -0.004398 0.004297 -0.001549 -0.000014 0.001377 -0.002197 0.000191 0.004027 0.004974 -0.002061 -0.003880 -0.002155 0.000293 0.000044 -0.003290 -0.000692 0.004067 0.001999 0.005086 -0.003078 0.004756 -0.004860 -0.004175 0.003358 0.004107 0.002756 -0.003270 0.002693 -0.004454 0.000229 -0.002580 0.002221 -0.003686 -0.004154 0.001556 0.001342 0.004439 0.000726
ÎÇòÎùºÎ•º 0.003911 0.001825 0.002267 -0.002039 0.002213 -0.000720 0.002365 0.003267 -0.004158 -0.000364 0.002869 -0.004187 -0.001542 0.002264 0.000871 0.004836 0.005316 0.000513 -0.000818 0.004297 0.002306 -0.002275 0.001328 -0.000285 0.002183 0.000908 0.002751 0.000894 -0.004348 0.000592 0.003820 -0.003170 -0.001731 -0.001673 -0.005008 0.001107 -0.001560 -0.001828 0.000866 -0.000132 -0.004415 -0.002247 -0.003050 0.001636 0.002918 -0.003784 0.002945 -0.003191 0.004930 -0.004428 -0.000253 -0.001302 -0.000687 0.000685 0.001765 0.003137 -0.002964 -0.001553 0.004997 -0.001492 -0.000211 -0.001504 -0.001426 -0.004300 0.003709 0.002801 0.003840 -0.002886 -0.004186 -0.004469 0.004473 -0.000272 -0.003941 0.003600 -0.003179 0.001321 -0.002650 -0.002141 0.000346 0.002292 -0.004575 -0.001000 -0.003771 -0.003413 -0.002700 0.002260 -0.001741 -0.000254 0.003103 0.004059 0.002459 -0.000084 -0.005110 0.004420 -0.001335 -0.002246 -0.000698 0.005128 -0.002589 -0.003220
Íµ≠ÎØºÏùò 0.003428 0.000547 0.003678 0.002611 -0.002613 -0.001340 0.002148 0.003639 0.002832 -0.002016 0.003761 0.001640 -0.003790 0.000296 -0.002134 -0.001910 -0.004496 0.001495 0.000197 -0.000735 -0.001373 -0.002395 -0.003658 0.003541 0.001152 -0.002293 0.004694 0.003121 -0.003883 -0.004698 -0.002572 -0.000596 0.001592 0.004333 -0.001742 -0.001191 -0.001601 0.001100 0.004016 -0.000694 -0.001054 -0.004148 0.002152 0.002899 -0.001527 0.000338 -0.004293 0.001471 0.004064 -0.001243 -0.002180 0.001472 -0.004165 -0.000942 -0.005109 0.000924 -0.002679 0.000232 -0.003801 0.000877 0.002877 0.004349 0.003007 0.004806 0.000993 -0.003929 -0.000896 -0.002436 0.001172 0.001911 0.000760 -0.001397 -0.004303 0.001386 -0.003461 -0.002272 0.000402 -0.002255 -0.001193 -0.001448 0.003144 0.004639 0.001178 -0.002927 0.003739 -0.000743 -0.000271 0.001847 0.004862 0.000556 0.003070 0.002985 0.000325 0.001351 0.003928 0.003750 0.000218 -0.004295 0.004514 0.000105
Íµ≠ÎØºÏùÑ 0.003769 0.000398 0.003087 0.000587 0.003610 -0.003459 -0.003972 -0.004536 0.003277 0.004400 -0.001724 0.000026 0.002826 -0.001927 -0.000082 -0.003114 0.002455 -0.002874 -0.000046 -0.004474 0.001333 -0.000970 -0.003070 -0.003558 -0.000571 -0.004604 0.000350 -0.004335 0.001014 0.003156 -0.003307 -0.004096 -0.003239 -0.002176 0.000735 -0.004317 0.000790 -0.001520 0.002771 -0.003542 -0.002934 -0.002073 0.002236 0.002352 0.004005 0.000601 0.004678 -0.002146 0.000615 0.002797 -0.004395 0.001701 -0.000222 -0.004885 0.004984 -0.005603 -0.002014 -0.001004 0.002874 0.000097 0.001198 -0.000531 0.004147 0.004271 0.001355 0.003149 0.005088 0.003478 0.000092 -0.000877 0.004080 0.001173 0.001511 -0.000723 0.002264 -0.000925 0.004555 0.000360 0.004829 0.002879 0.000117 -0.002919 -0.002505 0.001514 -0.000510 0.000256 -0.001079 -0.003953 -0.001595 0.000653 0.000050 -0.001061 0.002680 0.003770 -0.003006 -0.004350 -0.004459 -0.003723 0.003320 -0.004598
Ïó¥Ïã¨Ìûà -0.001449 -0.002634 0.000521 -0.001298 -0.003667 0.000169 -0.001915 -0.001459 -0.003237 -0.001407 0.000563 0.001384 -0.000126 -0.000911 0.004326 0.004806 -0.001383 0.002317 -0.001353 -0.000287 -0.002248 -0.000225 0.004311 -0.000191 -0.004551 -0.004524 -0.004381 0.000488 0.001422 -0.002874 -0.001244 -0.000130 -0.001407 0.004410 0.002941 -0.000675 0.001866 -0.001575 -0.000604 0.001479 -0.000763 0.004878 0.001800 0.002665 0.000693 -0.000197 -0.002945 0.000901 -0.001203 0.002957 0.003786 -0.003293 -0.001474 -0.003055 0.003186 0.004078 -0.001697 -0.004042 -0.000287 -0.001866 -0.002562 -0.003432 -0.000462 -0.002405 -0.000975 -0.000819 0.001061 0.002784 -0.001852 -0.004879 -0.003761 -0.002336 0.002252 -0.001004 -0.001054 -0.002991 0.001803 -0.001752 -0.004691 -0.000132 -0.000492 0.002128 0.004735 -0.002867 0.000300 0.002753 -0.001849 0.001491 0.001620 0.004311 -0.000398 -0.000720 0.004023 0.004435 -0.004374 -0.001660 0.000016 0.002234 0.004817 -0.000287
ÎÇòÎùº 0.004901 -0.000674 -0.000404 -0.003637 -0.003180 0.002235 0.000729 0.003850 0.003370 0.005921 0.000233 0.003663 0.000490 -0.001311 0.001044 0.001631 0.003356 -0.003476 -0.001347 0.002593 -0.005405 0.001345 -0.004148 0.002252 0.001695 -0.000972 -0.002714 0.002686 0.001970 0.002888 0.004213 0.000126 0.001523 0.002889 -0.003015 -0.001427 -0.000100 0.002337 0.000872 -0.005427 -0.003839 0.000135 -0.001047 -0.002425 0.003391 0.004754 0.003592 -0.003492 0.005286 -0.002149 0.004484 -0.004468 -0.000326 -0.004506 -0.003718 -0.000092 -0.000867 0.003811 0.004830 -0.001373 0.003453 0.002844 -0.000426 0.002814 0.000513 0.004163 0.001776 0.003190 -0.004100 0.001493 0.004777 -0.000950 -0.000760 0.001616 0.004190 -0.003612 -0.005072 -0.002469 0.001391 -0.003944 -0.001565 -0.001852 -0.003619 0.002269 -0.003813 -0.000717 0.003146 0.001198 -0.001248 -0.003636 -0.003113 -0.000047 -0.003912 0.000630 -0.000093 -0.001153 -0.001863 0.002824 -0.000408 0.002406
Í∑∏Îü¨ÎÇò 0.000882 -0.002412 0.003869 -0.003979 0.003810 0.004033 -0.005391 -0.002473 -0.001722 -0.000273 0.005261 0.000186 0.002005 -0.004171 0.003320 0.003769 0.002161 -0.000414 -0.004639 0.004770 -0.003928 -0.003585 -0.002967 0.001930 0.000834 -0.005283 -0.003875 -0.001596 -0.001824 -0.000839 -0.004529 0.004185 -0.003195 0.003285 -0.001446 -0.003975 -0.002551 0.002912 0.002294 0.002418 0.002500 -0.001068 0.003651 -0.005014 -0.002814 0.002683 -0.003571 -0.004365 -0.001696 -0.001687 0.003118 0.000825 -0.004028 0.004048 0.000707 -0.001431 0.004835 -0.001238 -0.002073 0.000054 -0.002344 0.005014 -0.003674 -0.001085 0.004175 -0.003325 0.000013 -0.001137 0.003248 0.000564 0.004332 0.000978 -0.003098 -0.004372 -0.001509 0.003959 0.001549 -0.003301 0.004887 0.001843 -0.004562 -0.004191 -0.003046 0.000522 -0.002704 0.001141 0.001016 -0.001400 0.000278 0.001017 -0.005187 -0.003641 -0.002105 -0.001449 0.002549 -0.003374 0.001066 -0.002236 -0.004795 -0.004327
ÏÉàÎ°úÏö¥ -0.001380 -0.004801 0.002352 0.001820 0.002916 0.002628 -0.002080 -0.004682 -0.002637 0.000032 -0.000202 0.002698 0.002514 0.000673 -0.004247 0.005005 -0.001091 -0.004667 -0.003669 0.001622 0.003983 0.001117 -0.000600 0.003751 0.000122 -0.001313 0.004455 -0.002193 -0.000276 -0.003542 -0.002408 -0.004417 0.004001 -0.000484 0.004673 -0.003870 -0.002621 -0.003823 0.005562 0.000507 0.004015 0.000119 -0.001420 0.003760 0.001844 0.005129 0.000966 -0.000552 -0.000086 -0.002619 -0.002653 -0.003391 0.000502 -0.001505 -0.002608 -0.004395 0.001510 -0.000924 0.002023 0.000645 -0.002246 0.004682 -0.004248 -0.002194 0.001895 0.001557 0.004837 0.002667 0.005048 -0.001455 -0.002755 -0.000195 0.000972 -0.002613 0.004038 -0.000661 -0.000250 -0.004079 0.001409 -0.001556 0.001796 -0.001518 0.004497 -0.004743 -0.001748 0.005536 0.002080 0.001568 0.005086 -0.002543 -0.005658 -0.000740 -0.003331 0.000782 -0.001075 0.003478 -0.001537 0.001166 -0.002361 0.003970
ÎßåÎì§Ïñ¥ 0.001219 -0.001856 0.003684 0.001215 -0.000778 -0.004600 -0.005136 -0.001955 -0.000217 -0.003814 -0.002344 0.001549 0.004351 -0.002921 -0.003395 -0.001844 0.005340 -0.001024 0.001789 -0.000611 -0.003476 0.003068 0.004417 -0.001452 -0.002345 0.003417 -0.002510 0.002258 -0.002533 -0.001636 -0.001300 -0.002244 -0.001367 -0.003225 -0.003693 -0.004175 -0.002788 0.000093 0.002126 -0.000037 0.000238 0.003786 -0.000817 -0.003564 -0.001887 0.004387 0.004750 0.002913 0.003020 0.001234 -0.002755 0.000389 0.000263 -0.003156 -0.001328 0.002030 -0.001903 -0.004349 0.002174 0.003920 -0.004118 0.004547 0.004767 0.004387 -0.002860 0.003233 0.005000 0.003326 -0.003468 0.003298 0.004365 -0.004827 0.001201 -0.000685 -0.003491 -0.005032 0.001885 -0.000681 -0.001581 0.001136 0.001587 0.001813 -0.001273 0.004625 0.004909 -0.000680 -0.001340 -0.001075 -0.000234 -0.004251 0.002009 -0.000643 -0.004644 -0.001090 -0.003870 0.004097 -0.004193 -0.002298 -0.001383 0.004342                                                                                                                                                                                                                                                                                                                                                                                                                                                                                                                                                                                                                                                                                                                                                                                                                                                                                                                                                                                                                                                                                                                                                                                                                                                                                                                                                                                                                                                                                                                                                                                                                                                                                                                                                                                                                                                                                                                                                                                                                                                                                                                                                                                                                                                                                                                                                                                                                                                                                                                                                                                                                                                                                                                                                                                                                                                                                                                                                                                                                                                                                                                                                                                                                                                                                                                                                                                                                                                                                                                                                                                                                                                                                                                                                                                                                                                                                                                                                                                                                                                                                                                                                                                                                                                                                                                                                                                                                                                                                                                                                                                                                                                                                                                                                                                                                                                                                                                                                                                                                                                                                                                                                                                                                                                                                                                                                                                                                                                                                                                                                                                                                                                                                                                                                                                                                                                                                                                                                                                                                                                                                                                                                                                                                                                                                                                                                                                                                                                                                                                                                                                                                                                                                                                                                                                                                                                                                                                                                                                                                                                                                                                                                                                                                                                                                                                                                                                                                                                                                                                                                                                                                                                                                                                                                                                                                                                                                                                                                                                                                                                                                                                                                                                                                                                                                                                                                                                                                                                                                                                                                                                                                                                                                                                                                                                                                                                                                                                                                                                                                                                                                                                                                                                                                                                                                                                                                                                                                                                                                                                                                                                                                                                                                                                                                                                                                                                                                                                                                                                              -0.001234 -0.000166 0.003374 -0.000860 0.001245 0.002161 0.002569 0.004744 0.002715 0.001493 0.004494 0.004590 -0.001396 -0.001991 -0.004164 -0.004711 -0.002704 0.004608 -0.003924 -0.004350 -0.000886 -0.003938 -0.002388 -0.003031 -0.002044 0.000124 0.004653 0.003172 -0.000602 -0.002891 0.004191 0.000805 0.001448 -0.000649 -0.004040 -0.001329 -0.004648 0.002577 0.001942 -0.001753 0.003971 0.003799 -0.003330 0.003359 0.003384 0.003448 -0.002721 0.000489 0.001669 0.004540 0.002981 -0.001728 -0.000316 0.001471 -0.004194 -0.001613 0.000806 0.002456 0.000958 0.004573 0.000777 -0.002312 0.004547 0.003712 -0.002340 -0.000472 -0.003042 0.004098 0.002430 0.003432 -0.000517 -0.002598 -0.001499 -0.003430 -0.002759 -0.002498 0.001269 -0.000535 -0.003244 0.000792 -0.000665
¿÷¥Ÿ¥¬ 0.005184 -0.002884 -0.003099 0.002715 -0.001712 0.002555 -0.004622 -0.003634 -0.004744 -0.003958 0.001880 -0.004108 -0.000819 0.002663 0.002233 -0.002853 0.000714 -0.004169 0.005334 0.003535 0.004092 -0.004797 0.002616 -0.005316 -0.000418 -0.004876 -0.002845 0.001995 -0.004534 0.004446 -0.002780 0.000185 -0.004983 0.000973 -0.000379 0.000999 0.004679 -0.003146 -0.001814 -0.004993 -0.000069 -0.001752 0.004258 0.001786 0.001056 0.000358 -0.004597 -0.001114 0.002327 0.002379 0.001235 -0.004406 -0.003036 -0.001922 0.002042 -0.003048 0.004737 0.001931 0.003129 -0.003905 0.003815 -0.000431 -0.000270 0.004061 -0.002989 0.002502 0.000094 -0.000146 0.002500 0.000178 -0.002972 -0.002924 0.003652 -0.002153 0.002914 0.003407 0.002613 0.005281 -0.005276 0.005098 0.003547 -0.002501 0.004487 0.002611 -0.000486 0.000984 -0.000969 -0.000041 -0.000233 -0.002648 0.004036 0.004160 0.001497 0.004952 -0.003781 0.001072 0.000035 0.001781 0.004504 0.002935
±◊¥¬ -0.000164 0.000559 0.000159 0.003190 -0.001164 -0.002865 -0.003419 -0.003043 -0.003467 -0.002169 0.000913 0.003335 -0.003696 0.001155 0.001544 0.002174 0.002934 0.000433 0.000336 -0.002746 0.003815 -0.000233 0.000771 0.003825 -0.000423 -0.004278 -0.000601 0.001033 0.002570 -0.001407 -0.004978 -0.000742 -0.001736 -0.000211 -0.000713 0.001878 0.004266 0.003941 -0.003876 0.003947 0.000464 -0.001283 0.001660 0.004684 -0.000386 0.002860 0.004866 0.004861 -0.003135 -0.001501 -0.002687 -0.003049 -0.000212 0.000488 0.002937 -0.002433 -0.001067 -0.004161 -0.001964 0.004354 -0.003503 0.003808 0.001622 -0.001432 -0.002349 -0.002887 0.004814 0.003165 0.000693 -0.000767 0.001422 0.004125 0.004763 -0.002470 -0.001730 -0.000238 0.003157 0.002456 0.003914 0.000738 0.001346 0.004668 0.000469 0.000217 -0.003589 -0.000170 0.001084 0.004064 -0.001161 0.004145 0.002369 0.001087 0.000690 -0.002096 0.003241 0.000906 -0.002460 0.002290 -0.004885 -0.002099
∞Õ¿ª -0.002580 0.001985 0.002311 -0.002688 0.000073 -0.005077 0.000277 -0.002520 -0.002297 0.000124 -0.001218 -0.000101 -0.003381 -0.001172 -0.001014 -0.003349 0.003603 -0.003135 0.004660 0.004107 -0.001258 0.000638 0.002394 0.000095 -0.004761 -0.000652 0.000720 -0.003593 -0.002200 -0.004451 0.001479 -0.004361 0.004617 0.003643 -0.001617 0.003955 -0.004388 0.000358 -0.001912 -0.001492 0.003223 -0.004068 -0.001000 0.001475 0.002442 0.001777 0.002731 -0.004162 0.001432 0.002149 0.003580 -0.003378 -0.000130 0.004736 -0.002399 0.003163 0.001060 -0.000895 0.003862 -0.004918 -0.000650 -0.003182 0.003848 -0.003361 0.002672 0.003121 0.000918 0.003144 0.002133 0.004074 0.001609 0.002764 -0.001307 -0.000555 0.005125 -0.003103 -0.001549 0.002275 0.002553 -0.001541 -0.000307 -0.004438 -0.001060 0.002746 0.001514 -0.002301 -0.000916 -0.001381 -0.002582 -0.002577 0.002763 -0.002764 0.001227 -0.002889 0.001113 0.000683 0.001568 0.000755 -0.001856 -0.004336 -0.002442 0.002748 -0.002719 0.001221 -0.002652 0.001042 0.000724 0.001614 0.000899 -0.001831 -0.004416